<?xml version="1.0"?>
<opencv_storage>
<!-- Created using Computer Vision System Toolbox(tm) for MATLAB(R) -->
<!-- Version 8.1.0.604 (R2013a) -->
<!-- Compatible with OpenCV 2.4 -->
<cascade>
  <stageType>BOOST</stageType>
  <featureType>HOG</featureType>
  <height>33</height>
  <width>32</width>
  <stageParams>
    <boostType>GAB</boostType>
    <minHitRate>9.9500000476837158e-01</minHitRate>
    <maxFalseAlarm>2.0000000298023224e-01</maxFalseAlarm>
    <weightTrimRate>9.4999999999999996e-01</weightTrimRate>
    <maxDepth>1</maxDepth>
    <maxWeakCount>100</maxWeakCount></stageParams>
  <featureParams>
    <maxCatCount>0</maxCatCount>
    <featSize>36</featSize></featureParams>
  <stageNum>5</stageNum>
  <stages>
    <!-- stage 0 -->
    <_>
      <maxWeakCount>18</maxWeakCount>
      <stageThreshold>-1.2620106935501099e+00</stageThreshold>
      <weakClassifiers>
        <_>
          <internalNodes>
            0 -1 63 5.2632734179496765e-02</internalNodes>
          <leafValues>
            -6.0085380077362061e-01 7.6608186960220337e-01</leafValues></_>
        <_>
          <internalNodes>
            0 -1 100 2.1976284682750702e-02</internalNodes>
          <leafValues>
            4.7546771168708801e-01 -4.9392002820968628e-01</leafValues></_>
        <_>
          <internalNodes>
            0 -1 33 5.1178056746721268e-02</internalNodes>
          <leafValues>
            -2.6710882782936096e-01 7.7233105897903442e-01</leafValues></_>
        <_>
          <internalNodes>
            0 -1 164 3.4713588654994965e-02</internalNodes>
          <leafValues>
            -2.7667894959449768e-01 7.1755570173263550e-01</leafValues></_>
        <_>
          <internalNodes>
            0 -1 12 2.2608475759625435e-02</internalNodes>
          <leafValues>
            4.6757501363754272e-01 -3.6446470022201538e-01</leafValues></_>
        <_>
          <internalNodes>
            0 -1 38 9.8906373605132103e-03</internalNodes>
          <leafValues>
            6.3981056213378906e-01 -2.6373943686485291e-01</leafValues></_>
        <_>
          <internalNodes>
            0 -1 26 2.2022932767868042e-02</internalNodes>
          <leafValues>
            4.1130417585372925e-01 -3.4533211588859558e-01</leafValues></_>
        <_>
          <internalNodes>
            0 -1 163 2.0899331197142601e-02</internalNodes>
          <leafValues>
            -4.7324511408805847e-01 3.5266804695129395e-01</leafValues></_>
        <_>
          <internalNodes>
            0 -1 148 3.1350020319223404e-02</internalNodes>
          <leafValues>
            -2.9710999131202698e-01 4.8368805646896362e-01</leafValues></_>
        <_>
          <internalNodes>
            0 -1 89 5.0705634057521820e-02</internalNodes>
          <leafValues>
            -1.4896041154861450e-01 7.3724436759948730e-01</leafValues></_>
        <_>
          <internalNodes>
            0 -1 90 2.2350935265421867e-02</internalNodes>
          <leafValues>
            3.9034688472747803e-01 -3.2127344608306885e-01</leafValues></_>
        <_>
          <internalNodes>
            0 -1 58 3.1369052827358246e-02</internalNodes>
          <leafValues>
            2.3545469343662262e-01 -6.0662698745727539e-01</leafValues></_>
        <_>
          <internalNodes>
            0 -1 74 2.4379301816225052e-02</internalNodes>
          <leafValues>
            2.7254584431648254e-01 -4.2960146069526672e-01</leafValues></_>
        <_>
          <internalNodes>
            0 -1 164 2.1650584414601326e-02</internalNodes>
          <leafValues>
            -4.1838303208351135e-01 2.5878605246543884e-01</leafValues></_>
        <_>
          <internalNodes>
            0 -1 15 2.0719129592180252e-02</internalNodes>
          <leafValues>
            4.1507259011268616e-01 -2.6588079333305359e-01</leafValues></_>
        <_>
          <internalNodes>
            0 -1 35 1.0978138074278831e-02</internalNodes>
          <leafValues>
            4.2878863215446472e-01 -2.1873943507671356e-01</leafValues></_>
        <_>
          <internalNodes>
            0 -1 101 2.2022943943738937e-02</internalNodes>
          <leafValues>
            -3.8677939772605896e-01 2.7339106798171997e-01</leafValues></_>
        <_>
          <internalNodes>
            0 -1 82 1.4264410361647606e-02</internalNodes>
          <leafValues>
            4.0294754505157471e-01 -2.3785722255706787e-01</leafValues></_></weakClassifiers></_>
    <!-- stage 1 -->
    <_>
      <maxWeakCount>43</maxWeakCount>
      <stageThreshold>-1.4461170434951782e+00</stageThreshold>
      <weakClassifiers>
        <_>
          <internalNodes>
            0 -1 33 6.7445352673530579e-02</internalNodes>
          <leafValues>
            -5.3840827941894531e-01 6.4628100395202637e-01</leafValues></_>
        <_>
          <internalNodes>
            0 -1 63 6.4039789140224457e-02</internalNodes>
          <leafValues>
            -2.5757879018783569e-01 7.1218556165695190e-01</leafValues></_>
        <_>
          <internalNodes>
            0 -1 61 8.9235026389360428e-03</internalNodes>
          <leafValues>
            4.8439878225326538e-01 -2.5436142086982727e-01</leafValues></_>
        <_>
          <internalNodes>
            0 -1 163 2.6558030396699905e-02</internalNodes>
          <leafValues>
            -3.5568988323211670e-01 3.5403770208358765e-01</leafValues></_>
        <_>
          <internalNodes>
            0 -1 136 2.5559158995747566e-02</internalNodes>
          <leafValues>
            2.7878227829933167e-01 -3.5132694244384766e-01</leafValues></_>
        <_>
          <internalNodes>
            0 -1 19 2.5350434705615044e-02</internalNodes>
          <leafValues>
            2.1726648509502411e-01 -3.6423584818840027e-01</leafValues></_>
        <_>
          <internalNodes>
            0 -1 164 2.9952529817819595e-02</internalNodes>
          <leafValues>
            -2.4075956642627716e-01 2.9538768529891968e-01</leafValues></_>
        <_>
          <internalNodes>
            0 -1 32 4.0794774889945984e-02</internalNodes>
          <leafValues>
            -1.7601658403873444e-01 4.8007386922836304e-01</leafValues></_>
        <_>
          <internalNodes>
            0 -1 99 3.6424562335014343e-02</internalNodes>
          <leafValues>
            -1.4573764801025391e-01 4.4762736558914185e-01</leafValues></_>
        <_>
          <internalNodes>
            0 -1 35 9.1888383030891418e-03</internalNodes>
          <leafValues>
            3.4338620305061340e-01 -1.9138038158416748e-01</leafValues></_>
        <_>
          <internalNodes>
            0 -1 94 1.9380232319235802e-02</internalNodes>
          <leafValues>
            2.7714487910270691e-01 -2.2691759467124939e-01</leafValues></_>
        <_>
          <internalNodes>
            0 -1 59 2.9656756669282913e-02</internalNodes>
          <leafValues>
            1.7184264957904816e-01 -4.1273802518844604e-01</leafValues></_>
        <_>
          <internalNodes>
            0 -1 16 5.9147689491510391e-02</internalNodes>
          <leafValues>
            -1.2398198992013931e-01 6.3657242059707642e-01</leafValues></_>
        <_>
          <internalNodes>
            0 -1 117 1.8629517406225204e-02</internalNodes>
          <leafValues>
            -4.2530170083045959e-01 1.8801565468311310e-01</leafValues></_>
        <_>
          <internalNodes>
            0 -1 64 5.2036359906196594e-02</internalNodes>
          <leafValues>
            -1.2488674372434616e-01 5.7505780458450317e-01</leafValues></_>
        <_>
          <internalNodes>
            0 -1 91 1.8701616674661636e-02</internalNodes>
          <leafValues>
            2.5078859925270081e-01 -2.3630414903163910e-01</leafValues></_>
        <_>
          <internalNodes>
            0 -1 109 7.8353229910135269e-03</internalNodes>
          <leafValues>
            3.9976420998573303e-01 -1.3851101696491241e-01</leafValues></_>
        <_>
          <internalNodes>
            0 -1 76 9.6757691353559494e-03</internalNodes>
          <leafValues>
            -4.9096110463142395e-01 1.2798362970352173e-01</leafValues></_>
        <_>
          <internalNodes>
            0 -1 65 7.5673372484743595e-03</internalNodes>
          <leafValues>
            4.8850095272064209e-01 -1.3111393153667450e-01</leafValues></_>
        <_>
          <internalNodes>
            0 -1 21 2.6331741362810135e-02</internalNodes>
          <leafValues>
            -2.1113896369934082e-01 2.3344314098358154e-01</leafValues></_>
        <_>
          <internalNodes>
            0 -1 11 7.6338844373822212e-03</internalNodes>
          <leafValues>
            4.9664816260337830e-01 -9.6206143498420715e-02</leafValues></_>
        <_>
          <internalNodes>
            0 -1 95 3.5446614027023315e-02</internalNodes>
          <leafValues>
            1.2204724550247192e-01 -4.0373989939689636e-01</leafValues></_>
        <_>
          <internalNodes>
            0 -1 52 7.3771057650446892e-03</internalNodes>
          <leafValues>
            -5.4081004858016968e-01 7.0404015481472015e-02</leafValues></_>
        <_>
          <internalNodes>
            0 -1 30 5.3992280736565590e-03</internalNodes>
          <leafValues>
            4.6337789297103882e-01 -1.1026017367839813e-01</leafValues></_>
        <_>
          <internalNodes>
            0 -1 98 2.5832921266555786e-02</internalNodes>
          <leafValues>
            1.7569187283515930e-01 -2.5621244311332703e-01</leafValues></_>
        <_>
          <internalNodes>
            0 -1 125 2.0168321207165718e-02</internalNodes>
          <leafValues>
            -3.1842637062072754e-01 1.3874678313732147e-01</leafValues></_>
        <_>
          <internalNodes>
            0 -1 152 3.9739847183227539e-02</internalNodes>
          <leafValues>
            -1.1448352038860321e-01 3.5387134552001953e-01</leafValues></_>
        <_>
          <internalNodes>
            0 -1 150 3.0344700440764427e-02</internalNodes>
          <leafValues>
            -1.5547540783882141e-01 2.7457597851753235e-01</leafValues></_>
        <_>
          <internalNodes>
            0 -1 56 5.1723361015319824e-02</internalNodes>
          <leafValues>
            -8.7571457028388977e-02 5.0826358795166016e-01</leafValues></_>
        <_>
          <internalNodes>
            0 -1 157 1.9278898835182190e-02</internalNodes>
          <leafValues>
            -2.7072480320930481e-01 1.6450510919094086e-01</leafValues></_>
        <_>
          <internalNodes>
            0 -1 49 1.8494483083486557e-02</internalNodes>
          <leafValues>
            2.1512657403945923e-01 -2.1543177962303162e-01</leafValues></_>
        <_>
          <internalNodes>
            0 -1 20 3.8763564079999924e-02</internalNodes>
          <leafValues>
            -1.2339113652706146e-01 3.7697571516036987e-01</leafValues></_>
        <_>
          <internalNodes>
            0 -1 2 1.4089092612266541e-02</internalNodes>
          <leafValues>
            2.7883908152580261e-01 -1.6713598370552063e-01</leafValues></_>
        <_>
          <internalNodes>
            0 -1 8 2.0779564976692200e-02</internalNodes>
          <leafValues>
            2.2360508143901825e-01 -2.0107491314411163e-01</leafValues></_>
        <_>
          <internalNodes>
            0 -1 135 4.6174429357051849e-02</internalNodes>
          <leafValues>
            -9.5555558800697327e-02 4.6690618991851807e-01</leafValues></_>
        <_>
          <internalNodes>
            0 -1 128 1.4387546107172966e-02</internalNodes>
          <leafValues>
            -3.7540048360824585e-01 1.3100443780422211e-01</leafValues></_>
        <_>
          <internalNodes>
            0 -1 84 2.7060289867222309e-03</internalNodes>
          <leafValues>
            6.0982221364974976e-01 -7.3630437254905701e-02</leafValues></_>
        <_>
          <internalNodes>
            0 -1 48 5.5773272179067135e-03</internalNodes>
          <leafValues>
            -7.2081196308135986e-01 6.3408918678760529e-02</leafValues></_>
        <_>
          <internalNodes>
            0 -1 92 1.2842644937336445e-02</internalNodes>
          <leafValues>
            2.6945549249649048e-01 -1.4778783917427063e-01</leafValues></_>
        <_>
          <internalNodes>
            0 -1 19 1.2901043519377708e-02</internalNodes>
          <leafValues>
            2.8078728914260864e-01 -1.2461862713098526e-01</leafValues></_>
        <_>
          <internalNodes>
            0 -1 120 1.7032589763402939e-02</internalNodes>
          <leafValues>
            -3.5180044174194336e-01 1.1503031104803085e-01</leafValues></_>
        <_>
          <internalNodes>
            0 -1 123 3.4366384148597717e-02</internalNodes>
          <leafValues>
            -1.3582199811935425e-01 2.9237696528434753e-01</leafValues></_>
        <_>
          <internalNodes>
            0 -1 142 6.9389447569847107e-02</internalNodes>
          <leafValues>
            4.5024868100881577e-02 -8.8231897354125977e-01</leafValues></_></weakClassifiers></_>
    <!-- stage 2 -->
    <_>
      <maxWeakCount>64</maxWeakCount>
      <stageThreshold>-1.2332044839859009e+00</stageThreshold>
      <weakClassifiers>
        <_>
          <internalNodes>
            0 -1 88 6.0937792062759399e-02</internalNodes>
          <leafValues>
            -5.2411121129989624e-01 4.9541285634040833e-01</leafValues></_>
        <_>
          <internalNodes>
            0 -1 85 6.7970510572195053e-03</internalNodes>
          <leafValues>
            4.8623901605606079e-01 -2.9298269748687744e-01</leafValues></_>
        <_>
          <internalNodes>
            0 -1 3 8.3158528432250023e-03</internalNodes>
          <leafValues>
            3.4387144446372986e-01 -2.3990894854068756e-01</leafValues></_>
        <_>
          <internalNodes>
            0 -1 108 1.5823647379875183e-02</internalNodes>
          <leafValues>
            3.1165742874145508e-01 -2.1304900944232941e-01</leafValues></_>
        <_>
          <internalNodes>
            0 -1 0 3.7263371050357819e-02</internalNodes>
          <leafValues>
            -1.9216403365135193e-01 3.1674817204475403e-01</leafValues></_>
        <_>
          <internalNodes>
            0 -1 25 1.3160947710275650e-02</internalNodes>
          <leafValues>
            2.7044838666915894e-01 -1.9913755357265472e-01</leafValues></_>
        <_>
          <internalNodes>
            0 -1 130 1.9966416060924530e-02</internalNodes>
          <leafValues>
            -3.3229318261146545e-01 1.9245660305023193e-01</leafValues></_>
        <_>
          <internalNodes>
            0 -1 36 3.7489172071218491e-02</internalNodes>
          <leafValues>
            -1.6560767590999603e-01 3.5599461197853088e-01</leafValues></_>
        <_>
          <internalNodes>
            0 -1 12 1.8005155026912689e-02</internalNodes>
          <leafValues>
            2.2231546044349670e-01 -2.0558276772499084e-01</leafValues></_>
        <_>
          <internalNodes>
            0 -1 42 1.8351018428802490e-02</internalNodes>
          <leafValues>
            -2.6506447792053223e-01 1.7859861254692078e-01</leafValues></_>
        <_>
          <internalNodes>
            0 -1 90 8.9449696242809296e-03</internalNodes>
          <leafValues>
            3.8341188430786133e-01 -1.0727400332689285e-01</leafValues></_>
        <_>
          <internalNodes>
            0 -1 78 2.0400954410433769e-02</internalNodes>
          <leafValues>
            -2.4016143381595612e-01 1.8303969502449036e-01</leafValues></_>
        <_>
          <internalNodes>
            0 -1 119 2.5652281939983368e-02</internalNodes>
          <leafValues>
            1.3005408644676208e-01 -2.7401551604270935e-01</leafValues></_>
        <_>
          <internalNodes>
            0 -1 157 1.1010717600584030e-02</internalNodes>
          <leafValues>
            -5.5621153116226196e-01 7.9397737979888916e-02</leafValues></_>
        <_>
          <internalNodes>
            0 -1 87 1.1920991353690624e-02</internalNodes>
          <leafValues>
            2.4999019503593445e-01 -1.5642647445201874e-01</leafValues></_>
        <_>
          <internalNodes>
            0 -1 147 1.7851529642939568e-02</internalNodes>
          <leafValues>
            -2.7339196205139160e-01 1.3286852836608887e-01</leafValues></_>
        <_>
          <internalNodes>
            0 -1 28 4.5736961066722870e-02</internalNodes>
          <leafValues>
            -1.1314333230257034e-01 3.2672977447509766e-01</leafValues></_>
        <_>
          <internalNodes>
            0 -1 22 1.0615747421979904e-02</internalNodes>
          <leafValues>
            -4.1520792245864868e-01 9.2716500163078308e-02</leafValues></_>
        <_>
          <internalNodes>
            0 -1 26 1.1068543419241905e-02</internalNodes>
          <leafValues>
            3.1155541539192200e-01 -1.2592044472694397e-01</leafValues></_>
        <_>
          <internalNodes>
            0 -1 23 2.6343411300331354e-03</internalNodes>
          <leafValues>
            6.1254143714904785e-01 -4.9398969858884811e-02</leafValues></_>
        <_>
          <internalNodes>
            0 -1 104 3.3024914562702179e-02</internalNodes>
          <leafValues>
            -1.4448446035385132e-01 2.3987871408462524e-01</leafValues></_>
        <_>
          <internalNodes>
            0 -1 14 5.5139303207397461e-02</internalNodes>
          <leafValues>
            4.6595327556133270e-02 -6.7007571458816528e-01</leafValues></_>
        <_>
          <internalNodes>
            0 -1 97 1.9256718456745148e-02</internalNodes>
          <leafValues>
            1.6022209823131561e-01 -2.1965944766998291e-01</leafValues></_>
        <_>
          <internalNodes>
            0 -1 55 4.2662005871534348e-02</internalNodes>
          <leafValues>
            -1.1062953621149063e-01 3.5373571515083313e-01</leafValues></_>
        <_>
          <internalNodes>
            0 -1 15 1.7835509032011032e-02</internalNodes>
          <leafValues>
            1.9077958166599274e-01 -1.6676543653011322e-01</leafValues></_>
        <_>
          <internalNodes>
            0 -1 160 1.9644897431135178e-02</internalNodes>
          <leafValues>
            -2.5620999932289124e-01 1.2799993157386780e-01</leafValues></_>
        <_>
          <internalNodes>
            0 -1 93 1.6133192926645279e-02</internalNodes>
          <leafValues>
            2.3904363811016083e-01 -1.8063743412494659e-01</leafValues></_>
        <_>
          <internalNodes>
            0 -1 121 1.9258745014667511e-02</internalNodes>
          <leafValues>
            -2.9678493738174438e-01 1.1844918876886368e-01</leafValues></_>
        <_>
          <internalNodes>
            0 -1 66 9.1878119856119156e-03</internalNodes>
          <leafValues>
            3.4426742792129517e-01 -1.1587078124284744e-01</leafValues></_>
        <_>
          <internalNodes>
            0 -1 111 2.6789586991071701e-02</internalNodes>
          <leafValues>
            -1.2244759500026703e-01 2.3379439115524292e-01</leafValues></_>
        <_>
          <internalNodes>
            0 -1 80 6.6736727021634579e-03</internalNodes>
          <leafValues>
            -5.0478160381317139e-01 5.5288486182689667e-02</leafValues></_>
        <_>
          <internalNodes>
            0 -1 40 3.8521222770214081e-02</internalNodes>
          <leafValues>
            -1.1635396629571915e-01 2.5115215778350830e-01</leafValues></_>
        <_>
          <internalNodes>
            0 -1 17 1.7401754856109619e-02</internalNodes>
          <leafValues>
            1.7126366496086121e-01 -1.6812269389629364e-01</leafValues></_>
        <_>
          <internalNodes>
            0 -1 154 4.6430818736553192e-02</internalNodes>
          <leafValues>
            4.8970814794301987e-02 -5.5674964189529419e-01</leafValues></_>
        <_>
          <internalNodes>
            0 -1 33 1.2110649794340134e-01</internalNodes>
          <leafValues>
            -4.5738235116004944e-02 6.8853718042373657e-01</leafValues></_>
        <_>
          <internalNodes>
            0 -1 2 3.7509067915380001e-03</internalNodes>
          <leafValues>
            4.8988288640975952e-01 -5.8852095156908035e-02</leafValues></_>
        <_>
          <internalNodes>
            0 -1 161 6.8737894296646118e-02</internalNodes>
          <leafValues>
            3.6056354641914368e-02 -8.6537188291549683e-01</leafValues></_>
        <_>
          <internalNodes>
            0 -1 37 7.7122546732425690e-02</internalNodes>
          <leafValues>
            -6.4965665340423584e-02 5.6474530696868896e-01</leafValues></_>
        <_>
          <internalNodes>
            0 -1 50 5.1711620762944221e-03</internalNodes>
          <leafValues>
            4.0584492683410645e-01 -6.1814513057470322e-02</leafValues></_>
        <_>
          <internalNodes>
            0 -1 98 3.1803607940673828e-02</internalNodes>
          <leafValues>
            9.5565192401409149e-02 -3.1152915954589844e-01</leafValues></_>
        <_>
          <internalNodes>
            0 -1 82 2.9733590781688690e-02</internalNodes>
          <leafValues>
            8.7856709957122803e-02 -3.5081449151039124e-01</leafValues></_>
        <_>
          <internalNodes>
            0 -1 77 6.6766054369509220e-03</internalNodes>
          <leafValues>
            -5.2752786874771118e-01 5.1923964172601700e-02</leafValues></_>
        <_>
          <internalNodes>
            0 -1 139 8.5276905447244644e-03</internalNodes>
          <leafValues>
            -5.9964078664779663e-01 3.9009425789117813e-02</leafValues></_>
        <_>
          <internalNodes>
            0 -1 105 7.2698257863521576e-02</internalNodes>
          <leafValues>
            2.1865131333470345e-02 -9.6598714590072632e-01</leafValues></_>
        <_>
          <internalNodes>
            0 -1 31 3.3235726878046989e-03</internalNodes>
          <leafValues>
            4.0100219845771790e-01 -7.1494460105895996e-02</leafValues></_>
        <_>
          <internalNodes>
            0 -1 24 8.4977596998214722e-03</internalNodes>
          <leafValues>
            2.4319444596767426e-01 -1.0102687776088715e-01</leafValues></_>
        <_>
          <internalNodes>
            0 -1 144 2.2537585347890854e-02</internalNodes>
          <leafValues>
            -2.0245681703090668e-01 1.4121612906455994e-01</leafValues></_>
        <_>
          <internalNodes>
            0 -1 47 4.4176064431667328e-02</internalNodes>
          <leafValues>
            -9.3549229204654694e-02 3.3157706260681152e-01</leafValues></_>
        <_>
          <internalNodes>
            0 -1 75 1.3213265687227249e-02</internalNodes>
          <leafValues>
            -3.2595872879028320e-01 8.6537033319473267e-02</leafValues></_>
        <_>
          <internalNodes>
            0 -1 121 3.3670112490653992e-02</internalNodes>
          <leafValues>
            -1.1796099692583084e-01 2.0307791233062744e-01</leafValues></_>
        <_>
          <internalNodes>
            0 -1 72 7.1749046444892883e-02</internalNodes>
          <leafValues>
            4.4922962784767151e-02 -5.2035337686538696e-01</leafValues></_>
        <_>
          <internalNodes>
            0 -1 67 2.0098334643989801e-03</internalNodes>
          <leafValues>
            6.9635987281799316e-01 -3.8311526179313660e-02</leafValues></_>
        <_>
          <internalNodes>
            0 -1 118 1.7369097098708153e-02</internalNodes>
          <leafValues>
            -2.3342557251453400e-01 9.9061228334903717e-02</leafValues></_>
        <_>
          <internalNodes>
            0 -1 9 6.0426881536841393e-03</internalNodes>
          <leafValues>
            3.8386383652687073e-01 -7.2582855820655823e-02</leafValues></_>
        <_>
          <internalNodes>
            0 -1 70 1.9800744950771332e-02</internalNodes>
          <leafValues>
            -1.7710918188095093e-01 1.5155690908432007e-01</leafValues></_>
        <_>
          <internalNodes>
            0 -1 83 8.7394602596759796e-03</internalNodes>
          <leafValues>
            2.7432915568351746e-01 -1.0950120538473129e-01</leafValues></_>
        <_>
          <internalNodes>
            0 -1 133 7.4376082047820091e-03</internalNodes>
          <leafValues>
            -7.9025673866271973e-01 3.3146377652883530e-02</leafValues></_>
        <_>
          <internalNodes>
            0 -1 137 7.7700830996036530e-02</internalNodes>
          <leafValues>
            -4.3209146708250046e-02 6.8774747848510742e-01</leafValues></_>
        <_>
          <internalNodes>
            0 -1 113 8.0391876399517059e-03</internalNodes>
          <leafValues>
            -5.1257312297821045e-01 5.3772680461406708e-02</leafValues></_>
        <_>
          <internalNodes>
            0 -1 41 9.1007240116596222e-03</internalNodes>
          <leafValues>
            3.7119755148887634e-01 -6.7166432738304138e-02</leafValues></_>
        <_>
          <internalNodes>
            0 -1 32 5.5909447371959686e-02</internalNodes>
          <leafValues>
            -7.5595341622829437e-02 3.3131280541419983e-01</leafValues></_>
        <_>
          <internalNodes>
            0 -1 153 3.3899471163749695e-02</internalNodes>
          <leafValues>
            -1.1725213378667831e-01 2.0503516495227814e-01</leafValues></_>
        <_>
          <internalNodes>
            0 -1 44 2.5386274792253971e-03</internalNodes>
          <leafValues>
            5.9814488887786865e-01 -4.3059110641479492e-02</leafValues></_>
        <_>
          <internalNodes>
            0 -1 54 1.3996794819831848e-02</internalNodes>
          <leafValues>
            -2.4960294365882874e-01 1.0141897201538086e-01</leafValues></_></weakClassifiers></_>
    <!-- stage 3 -->
    <_>
      <maxWeakCount>2</maxWeakCount>
      <stageThreshold>-8.0791658163070679e-01</stageThreshold>
      <weakClassifiers>
        <_>
          <internalNodes>
            0 -1 32 7.6573065598495305e-05</internalNodes>
          <leafValues>
            -9.8056364059448242e-01 5.9359776973724365e-01</leafValues></_>
        <_>
          <internalNodes>
            0 -1 138 4.1491974843665957e-04</internalNodes>
          <leafValues>
            -9.8784250020980835e-01 1.7264704406261444e-01</leafValues></_></weakClassifiers></_>
    <!-- stage 4 -->
    <_>
      <maxWeakCount>82</maxWeakCount>
      <stageThreshold>-1.2158093452453613e+00</stageThreshold>
      <weakClassifiers>
        <_>
          <internalNodes>
            0 -1 112 2.0798850804567337e-02</internalNodes>
          <leafValues>
            -7.2995281219482422e-01 4.0578097105026245e-02</leafValues></_>
        <_>
          <internalNodes>
            0 -1 122 1.4473367482423782e-02</internalNodes>
          <leafValues>
            -6.7110234498977661e-01 1.2258215248584747e-01</leafValues></_>
        <_>
          <internalNodes>
            0 -1 6 2.1026611328125000e-02</internalNodes>
          <leafValues>
            -3.3929729461669922e-01 2.0185597240924835e-01</leafValues></_>
        <_>
          <internalNodes>
            0 -1 63 9.2058666050434113e-02</internalNodes>
          <leafValues>
            -7.8310303390026093e-02 6.3567799329757690e-01</leafValues></_>
        <_>
          <internalNodes>
            0 -1 53 6.9445557892322540e-03</internalNodes>
          <leafValues>
            -6.1627429723739624e-01 1.1104608327150345e-01</leafValues></_>
        <_>
          <internalNodes>
            0 -1 126 8.8234627619385719e-03</internalNodes>
          <leafValues>
            -6.3447850942611694e-01 7.3303267359733582e-02</leafValues></_>
        <_>
          <internalNodes>
            0 -1 108 1.0115139186382294e-02</internalNodes>
          <leafValues>
            3.1060963869094849e-01 -1.4579069614410400e-01</leafValues></_>
        <_>
          <internalNodes>
            0 -1 145 8.7886508554220200e-03</internalNodes>
          <leafValues>
            -6.8673449754714966e-01 4.3273847550153732e-02</leafValues></_>
        <_>
          <internalNodes>
            0 -1 114 3.5264261066913605e-02</internalNodes>
          <leafValues>
            1.1364332586526871e-01 -4.0786072611808777e-01</leafValues></_>
        <_>
          <internalNodes>
            0 -1 89 4.4710561633110046e-02</internalNodes>
          <leafValues>
            -1.4325226843357086e-01 3.0850782990455627e-01</leafValues></_>
        <_>
          <internalNodes>
            0 -1 60 4.8979697749018669e-03</internalNodes>
          <leafValues>
            3.4202146530151367e-01 -1.2615835666656494e-01</leafValues></_>
        <_>
          <internalNodes>
            0 -1 43 9.5059219747781754e-03</internalNodes>
          <leafValues>
            -4.3851363658905029e-01 9.1070361435413361e-02</leafValues></_>
        <_>
          <internalNodes>
            0 -1 155 6.7719459533691406e-02</internalNodes>
          <leafValues>
            4.3919283896684647e-02 -7.9226022958755493e-01</leafValues></_>
        <_>
          <internalNodes>
            0 -1 68 4.5966766774654388e-02</internalNodes>
          <leafValues>
            -1.2320993840694427e-01 2.9401066899299622e-01</leafValues></_>
        <_>
          <internalNodes>
            0 -1 164 2.1137146279215813e-02</internalNodes>
          <leafValues>
            -3.2900863885879517e-01 1.0584387928247452e-01</leafValues></_>
        <_>
          <internalNodes>
            0 -1 140 1.3378172181546688e-02</internalNodes>
          <leafValues>
            -3.4823608398437500e-01 9.0237490832805634e-02</leafValues></_>
        <_>
          <internalNodes>
            0 -1 33 9.1458529233932495e-02</internalNodes>
          <leafValues>
            -6.6080503165721893e-02 4.4911774992942810e-01</leafValues></_>
        <_>
          <internalNodes>
            0 -1 62 9.3677520751953125e-02</internalNodes>
          <leafValues>
            -3.7776961922645569e-02 7.3078054189682007e-01</leafValues></_>
        <_>
          <internalNodes>
            0 -1 10 1.1639519594609737e-02</internalNodes>
          <leafValues>
            -3.3021885156631470e-01 9.8578281700611115e-02</leafValues></_>
        <_>
          <internalNodes>
            0 -1 119 1.5611331909894943e-02</internalNodes>
          <leafValues>
            2.2621302306652069e-01 -1.4353713393211365e-01</leafValues></_>
        <_>
          <internalNodes>
            0 -1 156 7.3048612102866173e-03</internalNodes>
          <leafValues>
            -6.5121138095855713e-01 3.6201894283294678e-02</leafValues></_>
        <_>
          <internalNodes>
            0 -1 13 1.5747565776109695e-02</internalNodes>
          <leafValues>
            2.0684823393821716e-01 -1.8438096344470978e-01</leafValues></_>
        <_>
          <internalNodes>
            0 -1 159 2.4622574448585510e-02</internalNodes>
          <leafValues>
            -1.7072397470474243e-01 1.4456284046173096e-01</leafValues></_>
        <_>
          <internalNodes>
            0 -1 163 3.4732080996036530e-02</internalNodes>
          <leafValues>
            -1.3673970103263855e-01 1.9491523504257202e-01</leafValues></_>
        <_>
          <internalNodes>
            0 -1 27 3.0502607114613056e-03</internalNodes>
          <leafValues>
            5.2285897731781006e-01 -4.9774434417486191e-02</leafValues></_>
        <_>
          <internalNodes>
            0 -1 116 8.1224059686064720e-03</internalNodes>
          <leafValues>
            -8.1015700101852417e-01 3.4406937658786774e-02</leafValues></_>
        <_>
          <internalNodes>
            0 -1 69 4.0956705808639526e-02</internalNodes>
          <leafValues>
            -9.5759838819503784e-02 2.8401505947113037e-01</leafValues></_>
        <_>
          <internalNodes>
            0 -1 96 3.9853729307651520e-02</internalNodes>
          <leafValues>
            -7.4190914630889893e-02 3.4815084934234619e-01</leafValues></_>
        <_>
          <internalNodes>
            0 -1 129 2.4572487920522690e-02</internalNodes>
          <leafValues>
            1.1651006340980530e-01 -2.2000008821487427e-01</leafValues></_>
        <_>
          <internalNodes>
            0 -1 90 3.0377712100744247e-02</internalNodes>
          <leafValues>
            1.0084386914968491e-01 -2.5227883458137512e-01</leafValues></_>
        <_>
          <internalNodes>
            0 -1 160 6.2851123511791229e-03</internalNodes>
          <leafValues>
            -7.0288217067718506e-01 3.6868713796138763e-02</leafValues></_>
        <_>
          <internalNodes>
            0 -1 110 9.1109331697225571e-03</internalNodes>
          <leafValues>
            2.1277728676795959e-01 -1.1404588818550110e-01</leafValues></_>
        <_>
          <internalNodes>
            0 -1 134 6.7503163591027260e-03</internalNodes>
          <leafValues>
            -6.7475450038909912e-01 3.7364326417446136e-02</leafValues></_>
        <_>
          <internalNodes>
            0 -1 124 7.3590815067291260e-02</internalNodes>
          <leafValues>
            2.2781325504183769e-02 -9.3154531717300415e-01</leafValues></_>
        <_>
          <internalNodes>
            0 -1 106 1.5093142166733742e-02</internalNodes>
          <leafValues>
            1.8824036419391632e-01 -1.4053678512573242e-01</leafValues></_>
        <_>
          <internalNodes>
            0 -1 18 2.6983860880136490e-02</internalNodes>
          <leafValues>
            7.9356707632541656e-02 -2.8817823529243469e-01</leafValues></_>
        <_>
          <internalNodes>
            0 -1 151 6.2028635293245316e-03</internalNodes>
          <leafValues>
            -6.8109804391860962e-01 3.0891614034771919e-02</leafValues></_>
        <_>
          <internalNodes>
            0 -1 16 6.2458865344524384e-02</internalNodes>
          <leafValues>
            -6.2893763184547424e-02 4.2328760027885437e-01</leafValues></_>
        <_>
          <internalNodes>
            0 -1 45 2.1353501826524734e-02</internalNodes>
          <leafValues>
            -1.7635555565357208e-01 1.3809613883495331e-01</leafValues></_>
        <_>
          <internalNodes>
            0 -1 7 2.0350903272628784e-02</internalNodes>
          <leafValues>
            1.3266301155090332e-01 -1.8999385833740234e-01</leafValues></_>
        <_>
          <internalNodes>
            0 -1 134 2.1366938948631287e-02</internalNodes>
          <leafValues>
            -2.1577042341232300e-01 1.1952859908342361e-01</leafValues></_>
        <_>
          <internalNodes>
            0 -1 159 1.0530855506658554e-02</internalNodes>
          <leafValues>
            -3.8210263848304749e-01 5.5350732058286667e-02</leafValues></_>
        <_>
          <internalNodes>
            0 -1 1 9.1634225100278854e-03</internalNodes>
          <leafValues>
            2.4997317790985107e-01 -1.0160546004772186e-01</leafValues></_>
        <_>
          <internalNodes>
            0 -1 118 1.7173759639263153e-02</internalNodes>
          <leafValues>
            -2.5488394498825073e-01 9.5974661409854889e-02</leafValues></_>
        <_>
          <internalNodes>
            0 -1 84 8.8049611076712608e-03</internalNodes>
          <leafValues>
            2.3638516664505005e-01 -1.0220865160226822e-01</leafValues></_>
        <_>
          <internalNodes>
            0 -1 131 3.0951265245676041e-02</internalNodes>
          <leafValues>
            -1.3366813957691193e-01 1.6652409732341766e-01</leafValues></_>
        <_>
          <internalNodes>
            0 -1 102 3.4257031977176666e-02</internalNodes>
          <leafValues>
            9.4727709889411926e-02 -2.6733148097991943e-01</leafValues></_>
        <_>
          <internalNodes>
            0 -1 143 2.3291183635592461e-02</internalNodes>
          <leafValues>
            1.6737130284309387e-01 -1.4999708533287048e-01</leafValues></_>
        <_>
          <internalNodes>
            0 -1 39 7.6033184304833412e-03</internalNodes>
          <leafValues>
            -3.9992061257362366e-01 5.9689018875360489e-02</leafValues></_>
        <_>
          <internalNodes>
            0 -1 141 2.1403964608907700e-02</internalNodes>
          <leafValues>
            -1.6020253300666809e-01 1.3294510543346405e-01</leafValues></_>
        <_>
          <internalNodes>
            0 -1 4 8.4828183054924011e-02</internalNodes>
          <leafValues>
            -3.8998551666736603e-02 5.6348127126693726e-01</leafValues></_>
        <_>
          <internalNodes>
            0 -1 107 2.3503180593252182e-02</internalNodes>
          <leafValues>
            1.0613381117582321e-01 -1.8427351117134094e-01</leafValues></_>
        <_>
          <internalNodes>
            0 -1 162 1.0888435877859592e-02</internalNodes>
          <leafValues>
            -3.1646665930747986e-01 6.6472724080085754e-02</leafValues></_>
        <_>
          <internalNodes>
            0 -1 86 7.4440203607082367e-03</internalNodes>
          <leafValues>
            2.1751779317855835e-01 -1.2505707144737244e-01</leafValues></_>
        <_>
          <internalNodes>
            0 -1 31 5.5412687361240387e-02</internalNodes>
          <leafValues>
            -4.4032920151948929e-02 4.8525452613830566e-01</leafValues></_>
        <_>
          <internalNodes>
            0 -1 115 1.5679694712162018e-02</internalNodes>
          <leafValues>
            -2.9637524485588074e-01 8.1073611974716187e-02</leafValues></_>
        <_>
          <internalNodes>
            0 -1 51 8.8973470032215118e-02</internalNodes>
          <leafValues>
            -2.7894344180822372e-02 6.7800837755203247e-01</leafValues></_>
        <_>
          <internalNodes>
            0 -1 71 6.8782046437263489e-02</internalNodes>
          <leafValues>
            -4.2990408837795258e-02 4.0994420647621155e-01</leafValues></_>
        <_>
          <internalNodes>
            0 -1 46 3.5821718629449606e-03</internalNodes>
          <leafValues>
            -8.2351344823837280e-01 2.6286162436008453e-02</leafValues></_>
        <_>
          <internalNodes>
            0 -1 57 6.2433581799268723e-02</internalNodes>
          <leafValues>
            1.7573898658156395e-02 -8.3704924583435059e-01</leafValues></_>
        <_>
          <internalNodes>
            0 -1 5 9.6933692693710327e-02</internalNodes>
          <leafValues>
            -3.1428974121809006e-02 6.8325918912887573e-01</leafValues></_>
        <_>
          <internalNodes>
            0 -1 147 6.9911554455757141e-03</internalNodes>
          <leafValues>
            -7.0116436481475830e-01 3.3840883523225784e-02</leafValues></_>
        <_>
          <internalNodes>
            0 -1 34 1.7101190984249115e-02</internalNodes>
          <leafValues>
            1.2586776912212372e-01 -1.4959250390529633e-01</leafValues></_>
        <_>
          <internalNodes>
            0 -1 33 1.6667973250150681e-02</internalNodes>
          <leafValues>
            -1.8046498298645020e-01 1.0664293169975281e-01</leafValues></_>
        <_>
          <internalNodes>
            0 -1 26 2.5509292259812355e-02</internalNodes>
          <leafValues>
            1.0128156095743179e-01 -1.8862262368202209e-01</leafValues></_>
        <_>
          <internalNodes>
            0 -1 29 4.7374181449413300e-02</internalNodes>
          <leafValues>
            4.4214013963937759e-02 -4.1942146420478821e-01</leafValues></_>
        <_>
          <internalNodes>
            0 -1 82 3.9016269147396088e-02</internalNodes>
          <leafValues>
            5.1651205867528915e-02 -3.4562298655509949e-01</leafValues></_>
        <_>
          <internalNodes>
            0 -1 103 2.5327529758214951e-02</internalNodes>
          <leafValues>
            1.0687778145074844e-01 -1.9096593558788300e-01</leafValues></_>
        <_>
          <internalNodes>
            0 -1 73 5.8599557727575302e-02</internalNodes>
          <leafValues>
            -5.1003944128751755e-02 3.8138991594314575e-01</leafValues></_>
        <_>
          <internalNodes>
            0 -1 8 1.7058253288269043e-02</internalNodes>
          <leafValues>
            1.6038396954536438e-01 -1.1227388679981232e-01</leafValues></_>
        <_>
          <internalNodes>
            0 -1 158 5.6623779237270355e-02</internalNodes>
          <leafValues>
            1.6851183027029037e-02 -8.5294795036315918e-01</leafValues></_>
        <_>
          <internalNodes>
            0 -1 38 9.7996085882186890e-02</internalNodes>
          <leafValues>
            -2.9317025095224380e-02 7.8395146131515503e-01</leafValues></_>
        <_>
          <internalNodes>
            0 -1 156 2.1166272461414337e-02</internalNodes>
          <leafValues>
            -1.7376050353050232e-01 1.0970643907785416e-01</leafValues></_>
        <_>
          <internalNodes>
            0 -1 127 2.1708846092224121e-02</internalNodes>
          <leafValues>
            1.3548497855663300e-01 -1.7238405346870422e-01</leafValues></_>
        <_>
          <internalNodes>
            0 -1 93 2.3056540638208389e-02</internalNodes>
          <leafValues>
            1.1627457290887833e-01 -1.8574321269989014e-01</leafValues></_>
        <_>
          <internalNodes>
            0 -1 81 6.6390283405780792e-02</internalNodes>
          <leafValues>
            2.3346398025751114e-02 -7.9673701524734497e-01</leafValues></_>
        <_>
          <internalNodes>
            0 -1 132 2.8706375509500504e-02</internalNodes>
          <leafValues>
            -1.1772286891937256e-01 1.6720968484878540e-01</leafValues></_>
        <_>
          <internalNodes>
            0 -1 87 5.5773023515939713e-02</internalNodes>
          <leafValues>
            4.3541751801967621e-02 -4.5196956396102905e-01</leafValues></_>
        <_>
          <internalNodes>
            0 -1 146 1.2109125964343548e-02</internalNodes>
          <leafValues>
            -3.7794256210327148e-01 4.5608595013618469e-02</leafValues></_>
        <_>
          <internalNodes>
            0 -1 79 1.7412394285202026e-02</internalNodes>
          <leafValues>
            1.7139098048210144e-01 -1.2060832977294922e-01</leafValues></_>
        <_>
          <internalNodes>
            0 -1 149 3.2745771110057831e-02</internalNodes>
          <leafValues>
            7.4708007276058197e-02 -2.6045155525207520e-01</leafValues></_>
        <_>
          <internalNodes>
            0 -1 122 4.3521404266357422e-02</internalNodes>
          <leafValues>
            -8.5222229361534119e-02 2.2305253148078918e-01</leafValues></_></weakClassifiers></_></stages>
  <features>
    <_>
      <rect>
        0 0 8 8 6</rect></_>
    <_>
      <rect>
        0 0 8 8 7</rect></_>
    <_>
      <rect>
        0 0 8 8 8</rect></_>
    <_>
      <rect>
        0 0 8 8 10</rect></_>
    <_>
      <rect>
        0 0 8 8 12</rect></_>
    <_>
      <rect>
        0 0 8 8 17</rect></_>
    <_>
      <rect>
        0 0 8 8 26</rect></_>
    <_>
      <rect>
        0 4 8 8 3</rect></_>
    <_>
      <rect>
        0 4 8 8 4</rect></_>
    <_>
      <rect>
        0 4 8 8 5</rect></_>
    <_>
      <rect>
        0 4 8 8 18</rect></_>
    <_>
      <rect>
        0 4 8 8 22</rect></_>
    <_>
      <rect>
        0 8 8 8 4</rect></_>
    <_>
      <rect>
        0 8 8 8 5</rect></_>
    <_>
      <rect>
        0 8 8 8 16</rect></_>
    <_>
      <rect>
        0 8 8 8 22</rect></_>
    <_>
      <rect>
        0 12 8 8 1</rect></_>
    <_>
      <rect>
        0 12 8 8 5</rect></_>
    <_>
      <rect>
        0 12 8 8 21</rect></_>
    <_>
      <rect>
        0 12 8 8 22</rect></_>
    <_>
      <rect>
        0 12 8 8 25</rect></_>
    <_>
      <rect>
        0 16 8 8 10</rect></_>
    <_>
      <rect>
        0 16 8 8 11</rect></_>
    <_>
      <rect>
        0 16 8 8 18</rect></_>
    <_>
      <rect>
        0 16 8 8 20</rect></_>
    <_>
      <rect>
        0 16 8 8 21</rect></_>
    <_>
      <rect>
        0 16 8 8 22</rect></_>
    <_>
      <rect>
        0 16 8 8 24</rect></_>
    <_>
      <rect>
        0 16 8 8 32</rect></_>
    <_>
      <rect>
        0 16 8 8 35</rect></_>
    <_>
      <rect>
        4 0 8 8 0</rect></_>
    <_>
      <rect>
        4 0 8 8 1</rect></_>
    <_>
      <rect>
        4 0 8 8 5</rect></_>
    <_>
      <rect>
        4 0 8 8 6</rect></_>
    <_>
      <rect>
        4 0 8 8 8</rect></_>
    <_>
      <rect>
        4 0 8 8 9</rect></_>
    <_>
      <rect>
        4 0 8 8 12</rect></_>
    <_>
      <rect>
        4 0 8 8 13</rect></_>
    <_>
      <rect>
        4 0 8 8 17</rect></_>
    <_>
      <rect>
        4 0 8 8 21</rect></_>
    <_>
      <rect>
        4 4 8 8 5</rect></_>
    <_>
      <rect>
        4 4 8 8 13</rect></_>
    <_>
      <rect>
        4 4 8 8 20</rect></_>
    <_>
      <rect>
        4 4 8 8 21</rect></_>
    <_>
      <rect>
        4 8 8 8 17</rect></_>
    <_>
      <rect>
        4 12 8 8 29</rect></_>
    <_>
      <rect>
        4 12 8 8 35</rect></_>
    <_>
      <rect>
        4 16 8 8 1</rect></_>
    <_>
      <rect>
        4 16 8 8 10</rect></_>
    <_>
      <rect>
        4 16 8 8 26</rect></_>
    <_>
      <rect>
        8 0 8 8 5</rect></_>
    <_>
      <rect>
        8 0 8 8 15</rect></_>
    <_>
      <rect>
        8 4 8 8 33</rect></_>
    <_>
      <rect>
        8 12 8 8 14</rect></_>
    <_>
      <rect>
        8 12 8 8 19</rect></_>
    <_>
      <rect>
        8 12 8 8 32</rect></_>
    <_>
      <rect>
        8 16 8 8 2</rect></_>
    <_>
      <rect>
        8 16 8 8 18</rect></_>
    <_>
      <rect>
        8 16 8 8 26</rect></_>
    <_>
      <rect>
        8 16 8 8 35</rect></_>
    <_>
      <rect>
        12 0 8 8 1</rect></_>
    <_>
      <rect>
        12 0 8 8 7</rect></_>
    <_>
      <rect>
        12 0 8 8 8</rect></_>
    <_>
      <rect>
        12 0 8 8 10</rect></_>
    <_>
      <rect>
        12 0 8 8 11</rect></_>
    <_>
      <rect>
        12 0 8 8 13</rect></_>
    <_>
      <rect>
        12 0 8 8 17</rect></_>
    <_>
      <rect>
        12 0 8 8 28</rect></_>
    <_>
      <rect>
        12 4 8 8 3</rect></_>
    <_>
      <rect>
        12 4 8 8 5</rect></_>
    <_>
      <rect>
        12 4 8 8 10</rect></_>
    <_>
      <rect>
        12 4 8 8 11</rect></_>
    <_>
      <rect>
        12 4 8 8 24</rect></_>
    <_>
      <rect>
        12 4 8 8 31</rect></_>
    <_>
      <rect>
        12 8 8 8 17</rect></_>
    <_>
      <rect>
        12 8 8 8 25</rect></_>
    <_>
      <rect>
        12 8 8 8 32</rect></_>
    <_>
      <rect>
        12 8 8 8 33</rect></_>
    <_>
      <rect>
        12 12 8 8 14</rect></_>
    <_>
      <rect>
        12 12 8 8 17</rect></_>
    <_>
      <rect>
        12 16 8 8 11</rect></_>
    <_>
      <rect>
        12 16 8 8 31</rect></_>
    <_>
      <rect>
        12 16 8 8 35</rect></_>
    <_>
      <rect>
        16 0 8 8 0</rect></_>
    <_>
      <rect>
        16 0 8 8 2</rect></_>
    <_>
      <rect>
        16 0 8 8 6</rect></_>
    <_>
      <rect>
        16 0 8 8 7</rect></_>
    <_>
      <rect>
        16 0 8 8 9</rect></_>
    <_>
      <rect>
        16 0 8 8 10</rect></_>
    <_>
      <rect>
        16 0 8 8 11</rect></_>
    <_>
      <rect>
        16 0 8 8 13</rect></_>
    <_>
      <rect>
        16 0 8 8 17</rect></_>
    <_>
      <rect>
        16 0 8 8 29</rect></_>
    <_>
      <rect>
        16 4 8 8 12</rect></_>
    <_>
      <rect>
        16 4 8 8 13</rect></_>
    <_>
      <rect>
        16 8 8 8 8</rect></_>
    <_>
      <rect>
        16 8 8 8 16</rect></_>
    <_>
      <rect>
        16 8 8 8 30</rect></_>
    <_>
      <rect>
        16 8 8 8 31</rect></_>
    <_>
      <rect>
        16 12 8 8 15</rect></_>
    <_>
      <rect>
        16 12 8 8 31</rect></_>
    <_>
      <rect>
        16 16 8 8 6</rect></_>
    <_>
      <rect>
        16 16 8 8 11</rect></_>
    <_>
      <rect>
        16 16 8 8 13</rect></_>
    <_>
      <rect>
        16 16 8 8 20</rect></_>
    <_>
      <rect>
        16 16 8 8 25</rect></_>
    <_>
      <rect>
        16 16 8 8 26</rect></_>
    <_>
      <rect>
        16 16 8 8 30</rect></_>
    <_>
      <rect>
        16 16 8 8 31</rect></_>
    <_>
      <rect>
        16 16 8 8 32</rect></_>
    <_>
      <rect>
        16 16 8 8 34</rect></_>
    <_>
      <rect>
        0 0 8 16 1</rect></_>
    <_>
      <rect>
        0 0 8 16 6</rect></_>
    <_>
      <rect>
        0 0 8 16 11</rect></_>
    <_>
      <rect>
        0 0 8 16 22</rect></_>
    <_>
      <rect>
        0 0 8 16 29</rect></_>
    <_>
      <rect>
        0 0 8 16 31</rect></_>
    <_>
      <rect>
        0 0 8 16 32</rect></_>
    <_>
      <rect>
        4 0 8 16 5</rect></_>
    <_>
      <rect>
        4 0 8 16 8</rect></_>
    <_>
      <rect>
        4 0 8 16 22</rect></_>
    <_>
      <rect>
        4 0 8 16 23</rect></_>
    <_>
      <rect>
        4 0 8 16 24</rect></_>
    <_>
      <rect>
        8 0 8 16 3</rect></_>
    <_>
      <rect>
        8 0 8 16 22</rect></_>
    <_>
      <rect>
        8 0 8 16 29</rect></_>
    <_>
      <rect>
        12 0 8 16 3</rect></_>
    <_>
      <rect>
        12 0 8 16 6</rect></_>
    <_>
      <rect>
        12 0 8 16 11</rect></_>
    <_>
      <rect>
        12 0 8 16 17</rect></_>
    <_>
      <rect>
        12 0 8 16 28</rect></_>
    <_>
      <rect>
        12 0 8 16 29</rect></_>
    <_>
      <rect>
        16 0 8 16 10</rect></_>
    <_>
      <rect>
        16 0 8 16 21</rect></_>
    <_>
      <rect>
        16 0 8 16 24</rect></_>
    <_>
      <rect>
        16 0 8 16 28</rect></_>
    <_>
      <rect>
        16 0 8 16 31</rect></_>
    <_>
      <rect>
        0 0 16 8 8</rect></_>
    <_>
      <rect>
        0 0 16 8 11</rect></_>
    <_>
      <rect>
        0 0 16 8 20</rect></_>
    <_>
      <rect>
        0 0 16 8 32</rect></_>
    <_>
      <rect>
        0 4 16 8 7</rect></_>
    <_>
      <rect>
        0 4 16 8 21</rect></_>
    <_>
      <rect>
        0 4 16 8 22</rect></_>
    <_>
      <rect>
        0 8 16 8 27</rect></_>
    <_>
      <rect>
        0 8 16 8 34</rect></_>
    <_>
      <rect>
        0 8 16 8 35</rect></_>
    <_>
      <rect>
        0 12 16 8 0</rect></_>
    <_>
      <rect>
        0 12 16 8 1</rect></_>
    <_>
      <rect>
        0 12 16 8 5</rect></_>
    <_>
      <rect>
        0 12 16 8 33</rect></_>
    <_>
      <rect>
        0 16 16 8 5</rect></_>
    <_>
      <rect>
        0 16 16 8 24</rect></_>
    <_>
      <rect>
        0 16 16 8 28</rect></_>
    <_>
      <rect>
        0 16 16 8 31</rect></_>
    <_>
      <rect>
        0 0 16 16 4</rect></_>
    <_>
      <rect>
        0 0 16 16 5</rect></_>
    <_>
      <rect>
        0 0 16 16 6</rect></_>
    <_>
      <rect>
        0 0 16 16 9</rect></_>
    <_>
      <rect>
        0 0 16 16 10</rect></_>
    <_>
      <rect>
        0 0 16 16 11</rect></_>
    <_>
      <rect>
        0 0 16 16 12</rect></_>
    <_>
      <rect>
        0 0 16 16 15</rect></_>
    <_>
      <rect>
        0 0 16 16 24</rect></_>
    <_>
      <rect>
        0 0 16 16 28</rect></_></features></cascade>
</opencv_storage>
